{
  "refl_mean": [
    0.05921467766165733,
    0.01976708322763443,
    0.090129554271698,
    0.3041134774684906,
    0.4025235176086426,
    0.43179264664649963,
    0.19245246052742004,
    0.06990793347358704
  ],
  "refl_std": [
    0.019764475524425507,
    0.010716181248426437,
    0.02615044265985489,
    0.04815347120165825,
    0.06460165232419968,
    0.06545234471559525,
    0.0402817465364933,
    0.024218909442424774
  ],
  "band_names": [
    "B3",
    "B4",
    "B5",
    "B6",
    "B7",
    "B8A",
    "B11",
    "B12"
  ],
  "metrics": {
    "LAI": {
      "R2": 0.4883,
      "RMSE": 1.198,
      "nRMSE": 18.4,
      "bias": -0.0041,
      "n_train": 80000,
      "n_test": 20000,
      "R2_ci95": [
        0.4787,
        0.4975
      ],
      "RMSE_ci95": [
        1.1852,
        1.211
      ],
      "bias_ci95": [
        -0.0207,
        0.0125
      ],
      "RMSE_trivial": 1.6748,
      "skill_score": 0.4883,
      "p_vs_trivial": 0.0,
      "t_bias": -0.488,
      "p_bias": 0.625,
      "R2_kfold_mean": 0.4806,
      "R2_kfold_std": 0.0037,
      "RMSE_kfold_mean": 1.215,
      "rmse_por_bin": [
        0.902,
        1.1609,
        0.9407,
        0.8356,
        1.8524
      ],
      "bias_por_bin": [
        0.6056,
        0.8064,
        0.4741,
        -0.2779,
        -1.6288
      ],
      "n_por_bin": [
        4000,
        4000,
        4000,
        4000,
        4000
      ],
      "rango_por_bin": [
        [
          1.5003153085708618,
          2.5421650409698486
        ],
        [
          2.5423243045806885,
          3.5054023265838623
        ],
        [
          3.5060181617736816,
          4.5304155349731445
        ],
        [
          4.5306572914123535,
          5.767302513122559
        ],
        [
          5.7675981521606445,
          7.999731063842773
        ]
      ]
    },
    "Cab": {
      "R2": 0.7505,
      "RMSE": 6.8783,
      "nRMSE": 13.8,
      "bias": 0.0048,
      "n_train": 80000,
      "n_test": 20000,
      "R2_ci95": [
        0.7445,
        0.7557
      ],
      "RMSE_ci95": [
        6.8139,
        6.9509
      ],
      "bias_ci95": [
        -0.0905,
        0.1001
      ],
      "RMSE_trivial": 13.769,
      "skill_score": 0.7504,
      "p_vs_trivial": 0.0,
      "t_bias": 0.098,
      "p_bias": 0.922,
      "R2_kfold_mean": 0.7466,
      "R2_kfold_std": 0.0036,
      "RMSE_kfold_mean": 6.9204,
      "rmse_por_bin": [
        5.6374,
        6.671,
        6.8426,
        6.3999,
        8.5145
      ],
      "bias_por_bin": [
        3.5777,
        2.5044,
        1.4331,
        -1.0193,
        -6.4721
      ],
      "n_por_bin": [
        4000,
        4000,
        4000,
        4000,
        4000
      ],
      "rango_por_bin": [
        [
          25.00119972229004,
          35.09394073486328
        ],
        [
          35.096534729003906,
          44.02826690673828
        ],
        [
          44.032466888427734,
          53.05183792114258
        ],
        [
          53.05280685424805,
          62.854331970214844
        ],
        [
          62.86021423339844,
          74.99557495117188
        ]
      ]
    },
    "fCover": {
      "R2": 0.6241,
      "RMSE": 0.0742,
      "nRMSE": 16.3,
      "bias": 0.0004,
      "n_train": 80000,
      "n_test": 20000,
      "R2_ci95": [
        0.6154,
        0.6344
      ],
      "RMSE_ci95": [
        0.0733,
        0.075
      ],
      "bias_ci95": [
        -0.0007,
        0.0014
      ],
      "RMSE_trivial": 0.1209,
      "skill_score": 0.6241,
      "p_vs_trivial": 0.0,
      "t_bias": 0.717,
      "p_bias": 0.473,
      "R2_kfold_mean": 0.6233,
      "R2_kfold_std": 0.0086,
      "RMSE_kfold_mean": 0.0748,
      "rmse_por_bin": [
        0.0952,
        0.08,
        0.0545,
        0.056,
        0.0769
      ],
      "bias_por_bin": [
        0.0629,
        0.0404,
        0.0017,
        -0.0355,
        -0.0676
      ],
      "n_por_bin": [
        4000,
        4000,
        4000,
        4000,
        4000
      ],
      "rango_por_bin": [
        [
          0.5276964902877808,
          0.7184016704559326
        ],
        [
          0.718424379825592,
          0.8253811001777649
        ],
        [
          0.8253877758979797,
          0.89485764503479
        ],
        [
          0.8949014544487,
          0.945071816444397
        ],
        [
          0.9450758695602417,
          0.9816797971725464
        ]
      ]
    },
    "CCC": {
      "R2": 0.6306,
      "RMSE": 62.9241,
      "nRMSE": 11.4,
      "bias": 0.1799,
      "n_train": 80000,
      "n_test": 20000,
      "R2_ci95": [
        0.6225,
        0.6375
      ],
      "RMSE_ci95": [
        62.1674,
        63.7567
      ],
      "bias_ci95": [
        -0.6922,
        1.052
      ],
      "RMSE_trivial": 103.5267,
      "skill_score": 0.6306,
      "p_vs_trivial": 0.0,
      "t_bias": 0.404,
      "p_bias": 0.686,
      "R2_kfold_mean": 0.6263,
      "R2_kfold_std": 0.0048,
      "RMSE_kfold_mean": 62.9981,
      "rmse_por_bin": [
        34.5176,
        47.911,
        54.6436,
        57.6816,
        99.9861
      ],
      "bias_por_bin": [
        21.6203,
        29.0913,
        22.19,
        -2.0429,
        -69.9595
      ],
      "n_por_bin": [
        4000,
        4000,
        4000,
        4000,
        4000
      ],
      "rango_por_bin": [
        [
          38.48017501831055,
          113.09275817871094
        ],
        [
          113.09351348876953,
          159.3843231201172
        ],
        [
          159.3870391845703,
          213.06944274902344
        ],
        [
          213.09695434570312,
          289.7871398925781
        ],
        [
          289.7908935546875,
          588.183837890625
        ]
      ]
    },
    "CWC": {
      "R2": 0.7389,
      "RMSE": 203.2945,
      "nRMSE": 7.9,
      "bias": -0.2571,
      "n_train": 80000,
      "n_test": 20000,
      "R2_ci95": [
        0.7323,
        0.7458
      ],
      "RMSE_ci95": [
        200.2396,
        206.048
      ],
      "bias_ci95": [
        -3.0747,
        2.5605
      ],
      "RMSE_trivial": 397.8926,
      "skill_score": 0.739,
      "p_vs_trivial": 0.0,
      "t_bias": -0.179,
      "p_bias": 0.858,
      "R2_kfold_mean": 0.7329,
      "R2_kfold_std": 0.0073,
      "RMSE_kfold_mean": 205.683,
      "rmse_por_bin": [
        83.7016,
        128.1294,
        169.8038,
        205.9011,
        334.6515
      ],
      "bias_por_bin": [
        40.1502,
        66.8807,
        66.9338,
        22.8222,
        -198.0722
      ],
      "n_por_bin": [
        4000,
        4000,
        4000,
        4000,
        4000
      ],
      "rango_por_bin": [
        [
          124.77291870117188,
          392.7091064453125
        ],
        [
          392.7274475097656,
          558.6718139648438
        ],
        [
          558.6885986328125,
          752.9068603515625
        ],
        [
          752.9074096679688,
          1037.1759033203125
        ],
        [
          1037.1763916015625,
          2703.639892578125
        ]
      ]
    }
  },
  "models": {
    "LAI": {
      "W1": [
        [
          0.3662196193100716,
          0.05524364244338176,
          -0.11501787129528292,
          0.10713412723980428,
          0.46208732081489756
        ],
        [
          -0.15066773153757226,
          0.3667050808136966,
          -0.05469864500621804,
          -0.08028868978197243,
          -0.5410147327256923
        ],
        [
          -0.32210206624588994,
          0.6848704934652698,
          0.16485180283123205,
          0.0037152605304229163,
          0.943676800247216
        ],
        [
          0.05373452881850761,
          -0.49933351614586147,
          -0.3810774988188905,
          -0.5526161467224291,
          0.19794078699528705
        ],
        [
          -0.1967238539700375,
          -0.249381144692087,
          0.1503693339363709,
          0.6962231525201988,
          0.817363137824123
        ],
        [
          0.30347136809217296,
          0.34702701158403937,
          0.9046803882193873,
          0.29165249379041175,
          -0.37173003193622917
        ],
        [
          0.2125938649897436,
          -0.1922423014498806,
          -0.061668262266987434,
          0.036158756243093726,
          0.6784466987838039
        ],
        [
          -0.01171399529445431,
          -0.058609213511798236,
          -0.398961025473436,
          -0.05949091514398163,
          -0.15071255193642777
        ],
        [
          -0.09290477017030464,
          -0.23590942817799113,
          -0.11846510118864005,
          0.4370079576625204,
          0.057594334512744066
        ],
        [
          -0.2333867138956969,
          0.039848235629074434,
          0.3442139047202339,
          -0.38024547815622173,
          0.16783552231655055
        ],
        [
          0.20758271525992297,
          0.7065792304333971,
          0.0026194338338479876,
          -0.5670013544101122,
          0.26693805426997963
        ]
      ],
      "b1": [
        -0.02257638704165407,
        0.00233681375728055,
        0.13235884652451177,
        -0.0018934461428668941,
        -0.0066852916120835135
      ],
      "W2": [
        0.31826139443420054,
        0.06718022872494468,
        1.0645507122689015,
        0.27526081429486143,
        -0.028283392256486132
      ],
      "b2": -0.17961525738691567,
      "y_mean": 4.176761893141269,
      "y_std": 1.6858101116640387,
      "n_hidden": 5
    },
    "Cab": {
      "W1": [
        [
          0.49053242192461244,
          -0.10027615750258402,
          -0.22774253325629135,
          -0.6554589906128083,
          -0.4105001764486386
        ],
        [
          0.028938544410152235,
          0.10577333014412757,
          -0.019384188001326526,
          -0.3500698064250896,
          0.19521393584046048
        ],
        [
          0.07484846251240106,
          -0.7343626279041042,
          -0.3639883549475843,
          0.550871358015194,
          0.06397592909195567
        ],
        [
          -0.21995739161805902,
          -0.5805393419336538,
          -0.03756993647821302,
          -0.17066628032173656,
          0.1679222899380113
        ],
        [
          -0.38565355954187436,
          0.7953970621990505,
          0.35118914497156906,
          -0.38060341987630425,
          -0.25299510959245547
        ],
        [
          0.41129697356702377,
          -0.2748037615191482,
          -0.07220904031108982,
          -0.15099190337675622,
          -0.7536766438656776
        ],
        [
          -0.07946851575508834,
          -0.04559887855971215,
          0.11230727884054865,
          0.3603035134171043,
          -0.49086116132602287
        ],
        [
          -0.63275454542292,
          0.1501105013863515,
          0.007207633785228726,
          0.25785180825168097,
          -0.09200980753737159
        ],
        [
          0.08208532381120534,
          -0.0017338361160684033,
          0.482730121315034,
          -0.23327707458115404,
          0.33682464935873185
        ],
        [
          0.16773061597133995,
          -0.36304096782076,
          -0.049235717471724574,
          -0.37706160078142464,
          -0.3128764983447827
        ],
        [
          0.6167107585339648,
          0.016486054058065063,
          0.053104984753389525,
          0.25646422438126193,
          0.12336990117199852
        ]
      ],
      "b1": [
        0.004327149141333953,
        -0.002427556043963494,
        -0.10414202186668246,
        -0.004415447411458493,
        -0.018323988219909666
      ],
      "W2": [
        0.035577444564534946,
        0.7516400290407163,
        0.9991710255590871,
        0.01844553204424217,
        0.0441681102239282
      ],
      "b2": -0.030531588724211814,
      "y_mean": 48.945480883908274,
      "y_std": 13.746789084489457,
      "n_hidden": 5
    },
    "fCover": {
      "W1": [
        [
          0.062931449700949,
          0.3888697329635708,
          -0.745752526459054,
          0.006385067958457513,
          0.39926598562084326
        ],
        [
          -0.5223600014540086,
          0.18925129183326092,
          0.2591974860623675,
          0.10450178457708523,
          -0.3823703866465659
        ],
        [
          0.001080558871347646,
          0.1342848939733369,
          -0.3862855489322028,
          -0.03687801990706507,
          0.29098803619661895
        ],
        [
          0.5134312490720139,
          0.4573961751204533,
          -0.6388875955625669,
          0.40481608543269904,
          0.034871397200320356
        ],
        [
          0.8122007285234196,
          0.35995450350139274,
          -0.46646437023946674,
          -0.20289012261470415,
          0.3068698161741512
        ],
        [
          0.26147993589435237,
          -0.008986016317975364,
          -0.5217408070358067,
          -1.0231883528868815,
          0.16931100613336078
        ],
        [
          0.9165918163603227,
          0.11559952986543658,
          0.5072138845587199,
          -0.0017291012536229894,
          -0.42295306113640646
        ],
        [
          0.008635585505519273,
          -0.9649810428590813,
          0.5318250659773035,
          0.4581967123656707,
          -0.19648526064204389
        ],
        [
          -0.03338291885905363,
          0.0031067700151960792,
          0.15349172288259805,
          -0.043490862392061055,
          0.10703889655712345
        ],
        [
          -0.3830191408596191,
          0.7901454261120475,
          0.356969476044829,
          -0.47639381143246734,
          -0.21162687773040748
        ],
        [
          0.23979835056788268,
          0.04003422095231354,
          0.20070311072848246,
          0.04401400002896664,
          0.15422099814993992
        ]
      ],
      "b1": [
        0.009055278535705612,
        0.01917925367854824,
        -0.02420114307498063,
        -0.32336669012523894,
        0.01430664212157515
      ],
      "W2": [
        0.036488168429138226,
        -0.06929636634010233,
        -0.044448359289554526,
        -1.4857294541789374,
        0.005723709127466822
      ],
      "b2": -0.6859671900841946,
      "y_mean": 0.8314189435437321,
      "y_std": 0.12185822206974094,
      "n_hidden": 5
    },
    "CCC": {
      "W1": [
        [
          0.027171540046725066,
          -0.3940288018945148,
          0.05291490403797342,
          0.18291777835227446,
          0.025391443043433937
        ],
        [
          0.08262390410270014,
          0.0969415485442539,
          -0.322441182232073,
          -0.004292125239340436,
          0.18556261661081194
        ],
        [
          0.05307209467486465,
          0.09278797628636741,
          0.5497675169100742,
          0.29683930635332134,
          0.46767452261924275
        ],
        [
          0.3369055195235772,
          -0.4897211358700596,
          0.489174889499997,
          0.6821485814259041,
          -0.49677759702850655
        ],
        [
          -0.2035232669673967,
          0.46586844408152805,
          -0.39558114437708264,
          -0.4283933826813285,
          -0.27518015935094525
        ],
        [
          -0.6447316869492717,
          0.10802362002281876,
          -0.07031715978327603,
          -0.5427082258401945,
          -0.19118943158072166
        ],
        [
          0.08402842066366144,
          -1.1230104541347523,
          -0.7986328082876238,
          -0.08613287120803007,
          0.164130805641697
        ],
        [
          0.21911099765073785,
          -0.2982416516362443,
          -0.0823159072520887,
          0.19419686804108677,
          0.24474723772425355
        ],
        [
          -0.4016843753284308,
          0.27960701372329055,
          -0.11526135604901903,
          -0.11978543537948248,
          0.12219260798943211
        ],
        [
          0.33300366964573885,
          0.5045240486680022,
          0.04971870949075789,
          0.4390256540504293,
          -0.27448004053995495
        ],
        [
          -0.1928598793993317,
          -0.491681290298403,
          -0.4452488351879417,
          0.0676755752585394,
          0.45908018082580576
        ]
      ],
      "b1": [
        -0.26030020653436725,
        -0.008969186233769919,
        0.04359079247529741,
        0.327045486361458,
        -0.2472962737132711
      ],
      "W2": [
        -0.5832745543710396,
        -0.014028442985816706,
        -0.1430238609785851,
        -0.8930417269766369,
        -0.28930548662403466
      ],
      "b2": 0.2067613231817881,
      "y_mean": 204.32490190196037,
      "y_std": 103.04335430496779,
      "n_hidden": 5
    },
    "CWC": {
      "W1": [
        [
          0.0029387335507969174,
          0.01200698765621081,
          0.08443488557230534,
          -0.04751896628301483,
          -0.1192365445757027
        ],
        [
          -0.0885180782607651,
          -0.06149837012310167,
          0.07384164640658782,
          -0.17327597379819007,
          -0.020533251555568427
        ],
        [
          0.11884993746576977,
          -0.05969499600232887,
          0.06704631617763454,
          0.3748980767963781,
          -0.4395236314450849
        ],
        [
          -0.07525935055337603,
          0.2631441150543983,
          -0.38417323891427324,
          -0.6139346382309855,
          0.2448760261242333
        ],
        [
          0.16565029019394722,
          -0.12733838656437368,
          0.08702598435057757,
          0.3210195277488313,
          -0.47486458693300637
        ],
        [
          -0.5301487763615189,
          0.27719426580059986,
          0.7065698122749035,
          0.6698694941715881,
          -0.24752480749314698
        ],
        [
          0.3372369156781115,
          -0.596630568797972,
          -0.5744255071201883,
          0.22344780826526572,
          -0.0473220840421236
        ],
        [
          -0.10958169188247094,
          -0.15236018264054801,
          -0.12010566632882567,
          -0.6194941115906308,
          0.3207316266653122
        ],
        [
          -0.08537972757045142,
          0.0869775755311387,
          -0.018016690105616327,
          0.08282870077382117,
          -0.1474662636210845
        ],
        [
          -0.2765220357771805,
          -0.5461111011705034,
          -0.7378795860133706,
          0.296524925846227,
          -0.1881069654775323
        ],
        [
          -0.011680437610265052,
          0.07428158768207248,
          -0.05491250741820684,
          -0.005807685481328202,
          -0.05750610508830507
        ]
      ],
      "b1": [
        -0.11115461565513134,
        -0.3107080780393229,
        -0.04005605929464313,
        -0.38542587170888915,
        -0.011598200957397928
      ],
      "W2": [
        -0.5476371755451351,
        0.6500520794475307,
        0.8729965302174646,
        0.4877587431769933,
        0.037321177241472686
      ],
      "b2": 0.6132296106036254,
      "y_mean": 731.6128061760902,
      "y_std": 397.96508548200717,
      "n_hidden": 5
    }
  }
}