{
  "refl_mean": [
    0.06840067356824875,
    0.029038501903414726,
    0.09622644633054733,
    0.28193914890289307,
    0.35534048080444336,
    0.3587210178375244,
    0.16932931542396545,
    0.06999458372592926
  ],
  "refl_std": [
    0.038070403039455414,
    0.026222454383969307,
    0.048063334077596664,
    0.07294221967458725,
    0.09710965305566788,
    0.09424243122339249,
    0.048026006668806076,
    0.04150203987956047
  ],
  "band_names": [
    "B3",
    "B4",
    "B5",
    "B6",
    "B7",
    "B8A",
    "B11",
    "B12"
  ],
  "metrics": {
    "LAI": {
      "R2": 0.7047,
      "RMSE": 1.0834,
      "nRMSE": 13.7,
      "bias": 0.0098,
      "n_train": 80000,
      "n_test": 20000,
      "R2_ci95": [
        0.698,
        0.7113
      ],
      "RMSE_ci95": [
        1.0714,
        1.0977
      ],
      "bias_ci95": [
        -0.0052,
        0.0248
      ],
      "RMSE_trivial": 1.9939,
      "skill_score": 0.7048,
      "p_vs_trivial": 0.0,
      "t_bias": 1.275,
      "p_bias": 0.202,
      "R2_kfold_mean": 0.6964,
      "R2_kfold_std": 0.005,
      "RMSE_kfold_mean": 1.1028,
      "rmse_por_bin": [
        0.3843,
        1.0348,
        1.0798,
        0.8174,
        1.678
      ],
      "bias_por_bin": [
        0.1429,
        0.6154,
        0.6508,
        0.0338,
        -1.3942
      ],
      "n_por_bin": [
        4000,
        4000,
        4000,
        4000,
        4000
      ],
      "rango_por_bin": [
        [
          0.10087940096855164,
          1.6251115798950195
        ],
        [
          1.6251963376998901,
          2.827503204345703
        ],
        [
          2.82776141166687,
          4.018738746643066
        ],
        [
          4.018818378448486,
          5.449143409729004
        ],
        [
          5.449863910675049,
          7.999600887298584
        ]
      ]
    },
    "Cab": {
      "R2": 0.8113,
      "RMSE": 8.4669,
      "nRMSE": 11.3,
      "bias": 0.0133,
      "n_train": 80000,
      "n_test": 20000,
      "R2_ci95": [
        0.8063,
        0.8164
      ],
      "RMSE_ci95": [
        8.3629,
        8.567
      ],
      "bias_ci95": [
        -0.1041,
        0.1306
      ],
      "RMSE_trivial": 19.4917,
      "skill_score": 0.8113,
      "p_vs_trivial": 0.0,
      "t_bias": 0.222,
      "p_bias": 0.824,
      "R2_kfold_mean": 0.8055,
      "R2_kfold_std": 0.0071,
      "RMSE_kfold_mean": 8.5743,
      "rmse_por_bin": [
        7.0033,
        7.7921,
        7.8308,
        7.8316,
        11.2261
      ],
      "bias_por_bin": [
        2.6371,
        3.6809,
        2.5721,
        -0.8743,
        -7.9494
      ],
      "n_por_bin": [
        4000,
        4000,
        4000,
        4000,
        4000
      ],
      "rango_por_bin": [
        [
          5.003086090087891,
          24.52044105529785
        ],
        [
          24.525405883789062,
          37.842227935791016
        ],
        [
          37.845726013183594,
          49.5490837097168
        ],
        [
          49.54977035522461,
          62.626121520996094
        ],
        [
          62.62646484375,
          79.9926986694336
        ]
      ]
    },
    "fCover": {
      "R2": 0.8824,
      "RMSE": 0.0787,
      "nRMSE": 8.4,
      "bias": 0.0012,
      "n_train": 80000,
      "n_test": 20000,
      "R2_ci95": [
        0.8786,
        0.8859
      ],
      "RMSE_ci95": [
        0.078,
        0.0796
      ],
      "bias_ci95": [
        0.0001,
        0.0022
      ],
      "RMSE_trivial": 0.2295,
      "skill_score": 0.8823,
      "p_vs_trivial": 0.0,
      "t_bias": 2.075,
      "p_bias": 0.038,
      "R2_kfold_mean": 0.8753,
      "R2_kfold_std": 0.0011,
      "RMSE_kfold_mean": 0.0811,
      "rmse_por_bin": [
        0.0822,
        0.1022,
        0.0682,
        0.0593,
        0.075
      ],
      "bias_por_bin": [
        0.0274,
        0.0469,
        0.016,
        -0.0255,
        -0.059
      ],
      "n_por_bin": [
        4000,
        4000,
        4000,
        4000,
        4000
      ],
      "rango_por_bin": [
        [
          0.04878145456314087,
          0.5573180913925171
        ],
        [
          0.5573422908782959,
          0.7579144239425659
        ],
        [
          0.757942259311676,
          0.8675288558006287
        ],
        [
          0.8675470352172852,
          0.9341816902160645
        ],
        [
          0.9341880679130554,
          0.9816749691963196
        ]
      ]
    },
    "CCC": {
      "R2": 0.8173,
      "RMSE": 50.6147,
      "nRMSE": 8.2,
      "bias": -0.805,
      "n_train": 80000,
      "n_test": 20000,
      "R2_ci95": [
        0.8123,
        0.8222
      ],
      "RMSE_ci95": [
        49.701,
        51.3628
      ],
      "bias_ci95": [
        -1.5064,
        -0.1036
      ],
      "RMSE_trivial": 118.3275,
      "skill_score": 0.817,
      "p_vs_trivial": 0.0,
      "t_bias": -2.25,
      "p_bias": 0.0245,
      "R2_kfold_mean": 0.8123,
      "R2_kfold_std": 0.0038,
      "RMSE_kfold_mean": 51.1251,
      "rmse_por_bin": [
        14.6751,
        25.6234,
        41.5734,
        52.9229,
        86.0707
      ],
      "bias_por_bin": [
        7.3666,
        5.2853,
        16.1507,
        13.6192,
        -46.4469
      ],
      "n_por_bin": [
        4000,
        4000,
        4000,
        4000,
        4000
      ],
      "rango_por_bin": [
        [
          0.8047587275505066,
          49.45548629760742
        ],
        [
          49.4676513671875,
          99.51722717285156
        ],
        [
          99.52019500732422,
          160.63006591796875
        ],
        [
          160.642333984375,
          252.58482360839844
        ],
        [
          252.615478515625,
          615.5422973632812
        ]
      ]
    },
    "CWC": {
      "R2": 0.8471,
      "RMSE": 169.0308,
      "nRMSE": 4.6,
      "bias": 0.9079,
      "n_train": 80000,
      "n_test": 20000,
      "R2_ci95": [
        0.8427,
        0.8514
      ],
      "RMSE_ci95": [
        165.7456,
        172.7412
      ],
      "bias_ci95": [
        -1.4348,
        3.2506
      ],
      "RMSE_trivial": 432.2333,
      "skill_score": 0.8471,
      "p_vs_trivial": 0.0,
      "t_bias": 0.76,
      "p_bias": 0.447,
      "R2_kfold_mean": 0.8384,
      "R2_kfold_std": 0.0042,
      "RMSE_kfold_mean": 173.5426,
      "rmse_por_bin": [
        56.1171,
        80.6282,
        125.5439,
        177.899,
        292.9125
      ],
      "bias_por_bin": [
        22.1498,
        22.3923,
        34.2467,
        42.5547,
        -116.804
      ],
      "n_por_bin": [
        4000,
        4000,
        4000,
        4000,
        4000
      ],
      "rango_por_bin": [
        [
          6.70626974105835,
          222.50828552246094
        ],
        [
          222.5658721923828,
          403.29498291015625
        ],
        [
          403.3306884765625,
          619.464111328125
        ],
        [
          619.4712524414062,
          932.7620849609375
        ],
        [
          932.9550170898438,
          3716.60498046875
        ]
      ]
    }
  },
  "models": {
    "LAI": {
      "W1": [
        [
          0.3996124421544593,
          0.056577103270057015,
          -0.14204852652731242,
          0.19291091640748181,
          0.41246845180857994
        ],
        [
          -0.2317715956753061,
          0.36765841266976546,
          -0.09230679888146633,
          -0.1381606954321645,
          -0.5709951645957376
        ],
        [
          -0.30038000448306507,
          0.6672429440656179,
          0.24535653775815527,
          0.09384504436961398,
          0.8859651692713214
        ],
        [
          0.12125182596319782,
          -0.4944430168810712,
          -0.2822884925075012,
          -0.4714173497812677,
          0.20674562108909827
        ],
        [
          -0.03255013162134746,
          -0.2672101040077856,
          0.4876100138297078,
          0.7814668360335943,
          0.810886616324947
        ],
        [
          0.1800172862781396,
          0.3510799678629399,
          0.5177252849028076,
          0.11565129345910087,
          -0.3582805264611663
        ],
        [
          0.18904969035970134,
          -0.14048705302173178,
          -0.17086474577731184,
          -0.09191295991294648,
          0.6014477481510032
        ],
        [
          -0.006254985959340104,
          -0.02355859667531763,
          -0.5036506708011895,
          -0.09416797928689821,
          -0.1930858470994964
        ],
        [
          -0.03308532527914756,
          -0.2227296043399315,
          -0.08387599930372039,
          0.44830805935525003,
          0.06033461838022213
        ],
        [
          -0.22919082958970619,
          0.06745906015842495,
          0.14854023370527114,
          -0.42342361274202556,
          0.16797383698604665
        ],
        [
          0.30954475142385,
          0.642982455080632,
          0.09542596610952646,
          -0.42645479214957877,
          0.25821380291740986
        ]
      ],
      "b1": [
        -0.026964563846277892,
        0.03375618600540105,
        -0.06618738749253024,
        -0.06396875830726109,
        -0.0015187851903019755
      ],
      "W2": [
        0.3407390215298818,
        -0.06000464065037957,
        0.9456519428416643,
        0.42295796643376177,
        -0.07634930596251342
      ],
      "b2": 0.01918395417690609,
      "y_mean": 3.5801613095879556,
      "y_std": 2.001362107995239,
      "n_hidden": 5
    },
    "Cab": {
      "W1": [
        [
          0.9495556727338562,
          -0.1694136953642195,
          0.09831608821224255,
          -0.1920601790419103,
          0.08374515647436974
        ],
        [
          -0.3122055057194576,
          0.2575786092162729,
          -0.21912441189109538,
          0.03973339312737161,
          -0.041416451128019824
        ],
        [
          0.04512485190585993,
          0.7830995792585181,
          0.7745164333931557,
          -0.5088403000632473,
          -0.15838966645050737
        ],
        [
          0.3769158417915703,
          0.042096551444450146,
          0.6103819234488213,
          -0.26791966899658204,
          0.5813830434251623
        ],
        [
          -0.15702138658439346,
          0.37449721813032744,
          -0.20323357080489324,
          0.5509936916244267,
          0.03435908304139435
        ],
        [
          -0.04870511595697741,
          -0.4523973806546145,
          -0.38320163014828584,
          0.24948655102311632,
          0.11963585143952996
        ],
        [
          -0.23035432711707218,
          0.16853512262822962,
          -0.07117475399116942,
          0.13536989828360002,
          0.3673461229035406
        ],
        [
          -0.10127355292776202,
          0.21962740057275668,
          -0.2205842606321232,
          0.13973539472738544,
          0.07288956373127602
        ],
        [
          -0.13572885578454083,
          0.4814122611318432,
          0.16538285624334545,
          0.6208261429118442,
          -0.004995788912547295
        ],
        [
          0.4898830050635517,
          0.794561111886289,
          0.06859307707782696,
          0.11992835014410186,
          -0.21243776177304072
        ],
        [
          0.08494481668436996,
          0.08735397999248527,
          -0.1889012331065325,
          -0.009504991165552428,
          0.3507514719479023
        ]
      ],
      "b1": [
        0.2673235704400282,
        -0.104275850818073,
        0.24095909189491527,
        0.08976693811848613,
        0.0027097589984204076
      ],
      "W2": [
        -0.43467488955987177,
        -0.29166494406290205,
        -0.6918051155592096,
        0.6896553339674886,
        -0.10060653509274013
      ],
      "b2": 0.15321694331852656,
      "y_mean": 43.56615625244379,
      "y_std": 19.442662941197764,
      "n_hidden": 5
    },
    "fCover": {
      "W1": [
        [
          0.26320421994312954,
          0.19286323920487722,
          -0.008150653540096545,
          0.02398072765697253,
          0.169805543286047
        ],
        [
          -0.5632670468831619,
          -0.7609693436367045,
          -0.1818794532828958,
          0.1288671844011494,
          0.1527487399771594
        ],
        [
          0.11780962298842651,
          -0.06097244329608562,
          -0.258899091430563,
          -0.19570761373708515,
          0.12858947730164708
        ],
        [
          -0.12437822682788227,
          -0.27517700583732746,
          0.0640264036183401,
          0.08400925152622965,
          -0.03941087471413041
        ],
        [
          0.37007374495871964,
          0.5698749852237709,
          0.37275681534602617,
          0.2734528979713123,
          -0.5670787190356663
        ],
        [
          0.350204003141237,
          0.20888758910679964,
          -0.3984509240349485,
          0.3445147163871859,
          0.42617821348720675
        ],
        [
          -0.28293298987226684,
          -0.1478631459567764,
          0.17964411646042275,
          -0.17754558781592544,
          -0.3894080944821064
        ],
        [
          -0.22016986577589584,
          -0.08257491991109477,
          0.249951851968739,
          -0.12429234871488268,
          0.12346589411763058
        ],
        [
          0.20345514155696912,
          0.2710431317250668,
          0.5433726943616264,
          0.839694890777248,
          -0.346089374580399
        ],
        [
          0.5547085459843574,
          0.18353655285366519,
          0.17621532058075517,
          -0.08025932684868052,
          -0.15107920397240268
        ],
        [
          0.052948168589240265,
          -0.395832351413751,
          -0.19018476012330573,
          0.1146200515236505,
          0.2634210555973455
        ]
      ],
      "b1": [
        -0.036870249191625196,
        -0.02514580227431055,
        0.39571856945228945,
        0.2649354118423644,
        -0.02713250601179175
      ],
      "W2": [
        0.43514819991661907,
        0.2588037033881541,
        -1.0598417826496722,
        0.8876752496669585,
        -0.6619889608168313
      ],
      "b2": -0.245451136520136,
      "y_mean": 0.7411737067706883,
      "y_std": 0.22963589796921485,
      "n_hidden": 5
    },
    "CCC": {
      "W1": [
        [
          0.47665722961806367,
          -0.2903266376046847,
          -0.18002854712038946,
          0.021705140581963062,
          0.25602782610119657
        ],
        [
          0.2245490128808653,
          -0.24844978036571902,
          -0.3068171737268315,
          -0.12367460557453244,
          -0.01219070917973562
        ],
        [
          0.36799798065067935,
          0.20157416065790248,
          -0.07271919112205108,
          -0.4519452293246016,
          0.4566412933524937
        ],
        [
          0.5876766255240048,
          0.019299858138411154,
          0.8650445662109122,
          0.06410295988494626,
          0.03143326521381377
        ],
        [
          0.12435890714922669,
          0.25396524590621566,
          -0.3042832422582539,
          0.8171867466911337,
          -0.6750328183833101
        ],
        [
          -1.0534593186635988,
          0.3656819533424561,
          -0.07554986055841242,
          -0.18697036544942117,
          0.4351836828937518
        ],
        [
          0.005148134870344,
          0.2649451813574146,
          -0.23553815487298937,
          -0.17934124071271057,
          0.3221819308918579
        ],
        [
          0.2609340649898786,
          -0.5760128266386556,
          -0.11611424272713859,
          -0.14219042374400623,
          -0.06672756501020403
        ],
        [
          0.271147208844504,
          -0.03915417201620275,
          -0.8936330810521179,
          0.17790144240026917,
          -0.12984396487299268
        ],
        [
          0.7367440355975473,
          -0.05629687972098494,
          -0.15204369105150103,
          -0.1951245959314159,
          0.04390145352357195
        ],
        [
          -0.04957936206038222,
          -0.5719460369110559,
          0.026820987793104517,
          0.15757968252168886,
          0.6920809911557984
        ]
      ],
      "b1": [
        0.4101915238685274,
        0.08483983521343219,
        0.11748323284663457,
        -0.1705012022070486,
        0.11483679900133112
      ],
      "W2": [
        -0.8929564094109271,
        0.2338181344940464,
        -0.5889426132833712,
        0.9122379415614255,
        -0.038021231024563694
      ],
      "b2": 0.3229755374938549,
      "y_mean": 155.61787936520278,
      "y_std": 117.97731891846134,
      "n_hidden": 5
    },
    "CWC": {
      "W1": [
        [
          0.45290836711151167,
          0.6456140364688947,
          0.11286958741549073,
          -0.24250696876950265,
          0.12155113347530459
        ],
        [
          -0.10081648321421832,
          -0.23278831084608997,
          -0.3959169596122758,
          0.22647076102364747,
          -0.04357753655863568
        ],
        [
          0.12612990764985746,
          -0.8567322481665202,
          -0.8770164538957319,
          -0.6755300547301512,
          -0.03254373443911568
        ],
        [
          -0.2551370717885547,
          -0.21207166273300962,
          -0.2561442539544119,
          0.19096468102569306,
          -0.09637314181326834
        ],
        [
          0.5072274880377164,
          -0.2494531355930209,
          0.022589354096480854,
          0.30182648288817965,
          0.429783892645784
        ],
        [
          0.16354240979507828,
          0.12747601678069984,
          0.16434463208171665,
          0.13752863730437923,
          0.27571001044508864
        ],
        [
          -0.2840238781456712,
          0.5506223851193893,
          0.09160552370042485,
          0.3110269316097195,
          -0.6116348390152111
        ],
        [
          -0.16796554957035945,
          -0.6693462816058987,
          -0.4109728985616747,
          -0.6182631776555304,
          -0.2898891594028958
        ],
        [
          0.5213304145843163,
          0.05767417398667251,
          -0.26950517035268695,
          -0.1728379181633766,
          0.0036828136218444237
        ],
        [
          0.06431118545546144,
          -0.43892964650465227,
          0.1442343889394323,
          0.18960088560222496,
          -0.7455742910955339
        ],
        [
          -0.36673687124969123,
          -0.15075509973362422,
          -0.27868498595588914,
          -0.07489539881991807,
          0.023843810351369996
        ]
      ],
      "b1": [
        0.08194704800539289,
        -0.06707444565273203,
        0.08563371382403875,
        0.12032820249116588,
        -0.26838799029398747
      ],
      "W2": [
        0.22713420661855635,
        -0.23704838752817123,
        0.03540065374822461,
        0.2335312889236375,
        1.788330560806994
      ],
      "b2": 0.7865436944696199,
      "y_mean": 593.7014369276643,
      "y_std": 431.5313651152758,
      "n_hidden": 5
    }
  }
}